svm_type c_svc
kernel_type linear
nr_class 2
total_sv 963
rho -1.0002
label 0 1
nr_sv 482 481
SV
10 0:0 1:1 
10 0:0 1:1 
10 0:0 1:1 
10 0:0 1:1 
10 0:0 1:1 
10 0:1 1:1 
10 0:1 1:1 
10 0:0 1:1 
10 0:1 1:1 
10 0:0 1:1 
10 0:1 1:1 
10 0:0 1:1 
10 0:0 1:1 
10 0:1 1:1 
10 0:0 1:1 
10 0:0 1:1 
10 0:0 1:1 
10 0:0 1:1 
10 0:0 1:1 
10 0:0 1:1 
10 0:0 1:1 
10 0:0 1:1 
10 0:0 1:1 
10 0:0 1:1 
10 0:0 1:1 
10 0:1 1:1 
10 0:1 1:1 
10 0:1 1:1 
10 0:1 1:1 
10 0:1 1:1 
10 0:1 1:1 
10 0:1 1:1 
10 0:1 1:1 
10 0:1 1:1 
10 0:1 1:1 
10 0:1 1:1 
10 0:1 1:1 
10 0:1 1:1 
10 0:1 1:1 
10 0:1 1:1 
10 0:1 1:1 
10 0:1 1:1 
10 0:1 1:1 
10 0:1 1:1 
10 0:1 1:1 
10 0:1 1:1 
10 0:1 1:1 
10 0:1 1:1 
10 0:1 1:1 
10 0:1 1:1 
10 0:1 1:1 
10 0:1 1:1 
10 0:1 1:1 
10 0:1 1:1 
10 0:1 1:1 
10 0:1 1:1 
10 0:1 1:1 
1.998046875 0:1 1:0 
10 0:1 1:0 
10 0:1 1:1 
10 0:1 1:0 
10 0:1 1:0 
10 0:1 1:0 
10 0:1 1:0 
10 0:1 1:0 
10 0:1 1:0 
10 0:1 1:0 
10 0:1 1:0 
10 0:1 1:0 
10 0:1 1:0 
10 0:1 1:0 
10 0:1 1:0 
10 0:1 1:0 
10 0:1 1:0 
10 0:1 1:0 
10 0:1 1:0 
10 0:1 1:0 
10 0:1 1:0 
10 0:1 1:0 
10 0:1 1:0 
10 0:1 1:0 
10 0:1 1:0 
10 0:1 1:0 
10 0:1 1:0 
10 0:1 1:0 
10 0:1 1:0 
10 0:1 1:0 
10 0:1 1:0 
10 0:1 1:0 
10 0:1 1:0 
10 0:1 1:0 
10 0:1 1:0 
10 0:1 1:0 
10 0:1 1:0 
10 0:1 1:0 
10 0:1 1:0 
10 0:1 1:0 
10 0:1 1:0 
10 0:1 1:0 
10 0:1 1:0 
10 0:1 1:0 
10 0:1 1:0 
10 0:1 1:0 
10 0:1 1:0 
10 0:1 1:0 
10 0:1 1:0 
10 0:1 1:0 
10 0:1 1:0 
10 0:1 1:0 
10 0:1 1:0 
10 0:1 1:0 
10 0:1 1:0 
10 0:1 1:0 
10 0:1 1:0 
10 0:1 1:0 
10 0:1 1:0 
10 0:1 1:0 
10 0:1 1:0 
10 0:1 1:0 
10 0:1 1:0 
10 0:1 1:0 
10 0:1 1:0 
10 0:1 1:0 
10 0:1 1:0 
10 0:1 1:0 
10 0:1 1:0 
10 0:1 1:0 
10 0:1 1:0 
10 0:1 1:0 
10 0:1 1:0 
10 0:1 1:0 
10 0:1 1:0 
10 0:1 1:0 
10 0:1 1:0 
10 0:1 1:0 
10 0:1 1:0 
10 0:1 1:0 
10 0:1 1:0 
10 0:1 1:0 
10 0:1 1:1 
10 0:1 1:0 
10 0:1 1:0 
10 0:1 1:0 
10 0:1 1:0 
10 0:1 1:0 
10 0:1 1:0 
10 0:1 1:0 
10 0:1 1:0 
10 0:1 1:0 
10 0:1 1:0 
10 0:1 1:0 
10 0:1 1:0 
10 0:1 1:0 
10 0:1 1:0 
10 0:1 1:0 
10 0:1 1:0 
10 0:1 1:0 
10 0:1 1:0 
10 0:1 1:0 
10 0:1 1:0 
10 0:1 1:0 
10 0:1 1:0 
10 0:1 1:0 
10 0:1 1:0 
10 0:1 1:0 
10 0:1 1:0 
10 0:1 1:0 
10 0:1 1:0 
10 0:1 1:0 
10 0:1 1:0 
10 0:1 1:0 
10 0:1 1:0 
10 0:1 1:0 
10 0:1 1:1 
10 0:1 1:0 
10 0:1 1:0 
10 0:1 1:0 
10 0:1 1:1 
10 0:1 1:0 
10 0:1 1:0 
10 0:1 1:0 
10 0:1 1:0 
10 0:1 1:1 
10 0:1 1:1 
10 0:1 1:0 
10 0:1 1:0 
10 0:1 1:0 
10 0:1 1:0 
10 0:1 1:0 
10 0:1 1:0 
10 0:1 1:0 
10 0:1 1:0 
10 0:1 1:0 
10 0:1 1:0 
10 0:1 1:1 
10 0:1 1:0 
10 0:1 1:0 
10 0:1 1:0 
10 0:1 1:1 
10 0:1 1:0 
10 0:1 1:0 
10 0:1 1:0 
10 0:1 1:0 
10 0:1 1:0 
10 0:1 1:0 
10 0:1 1:0 
10 0:1 1:0 
10 0:1 1:0 
10 0:1 1:0 
10 0:1 1:1 
10 0:1 1:0 
10 0:1 1:0 
10 0:1 1:0 
10 0:1 1:0 
10 0:1 1:0 
10 0:1 1:0 
10 0:1 1:0 
10 0:1 1:0 
10 0:1 1:0 
10 0:1 1:0 
10 0:1 1:1 
10 0:1 1:0 
10 0:1 1:0 
10 0:0 1:1 
10 0:0 1:1 
10 0:1 1:0 
10 0:1 1:0 
10 0:1 1:0 
10 0:1 1:0 
10 0:1 1:0 
10 0:1 1:0 
10 0:1 1:0 
10 0:1 1:0 
10 0:1 1:0 
10 0:1 1:0 
10 0:1 1:0 
10 0:1 1:0 
10 0:1 1:0 
10 0:0 1:1 
10 0:1 1:0 
10 0:1 1:0 
10 0:1 1:0 
10 0:1 1:0 
10 0:1 1:0 
10 0:1 1:0 
10 0:1 1:0 
10 0:1 1:0 
10 0:1 1:0 
10 0:1 1:0 
10 0:1 1:0 
10 0:1 1:0 
10 0:1 1:0 
10 0:1 1:0 
10 0:1 1:0 
10 0:1 1:0 
10 0:1 1:0 
10 0:1 1:0 
10 0:0 1:1 
10 0:0 1:1 
10 0:0 1:1 
10 0:0 1:1 
10 0:0 1:1 
10 0:1 1:0 
10 0:1 1:0 
10 0:1 1:0 
10 0:1 1:0 
10 0:1 1:0 
2 0:0 1:0 
10 0:0 1:0 
10 0:0 1:0 
10 0:0 1:0 
10 0:0 1:0 
10 0:0 1:0 
10 0:0 1:0 
10 0:0 1:0 
10 0:0 1:0 
10 0:0 1:0 
10 0:0 1:0 
10 0:0 1:0 
10 0:0 1:0 
10 0:0 1:0 
10 0:0 1:0 
10 0:0 1:0 
10 0:0 1:0 
10 0:0 1:0 
10 0:0 1:0 
10 0:0 1:0 
10 0:0 1:0 
10 0:0 1:0 
10 0:0 1:0 
10 0:0 1:0 
10 0:0 1:0 
10 0:0 1:0 
10 0:0 1:0 
10 0:0 1:0 
10 0:0 1:0 
10 0:0 1:0 
10 0:0 1:0 
10 0:0 1:0 
10 0:0 1:0 
10 0:0 1:0 
10 0:0 1:0 
10 0:0 1:0 
10 0:0 1:0 
10 0:0 1:0 
10 0:0 1:0 
10 0:0 1:0 
10 0:0 1:0 
10 0:0 1:0 
10 0:0 1:0 
10 0:0 1:0 
10 0:0 1:0 
10 0:0 1:0 
10 0:0 1:0 
10 0:0 1:0 
10 0:0 1:0 
10 0:0 1:0 
10 0:0 1:0 
10 0:0 1:0 
10 0:0 1:0 
10 0:0 1:0 
10 0:0 1:0 
10 0:0 1:0 
10 0:0 1:0 
10 0:0 1:0 
10 0:0 1:0 
10 0:0 1:0 
10 0:0 1:0 
10 0:0 1:0 
10 0:0 1:0 
10 0:0 1:0 
10 0:0 1:0 
10 0:0 1:0 
10 0:0 1:0 
10 0:0 1:0 
10 0:0 1:0 
10 0:0 1:0 
10 0:0 1:0 
10 0:0 1:0 
10 0:0 1:0 
10 0:0 1:0 
10 0:0 1:0 
10 0:0 1:0 
10 0:0 1:0 
10 0:0 1:0 
10 0:0 1:0 
10 0:0 1:0 
10 0:0 1:0 
10 0:0 1:0 
10 0:0 1:0 
10 0:0 1:0 
10 0:0 1:0 
10 0:0 1:0 
10 0:0 1:0 
10 0:0 1:0 
10 0:0 1:0 
10 0:0 1:0 
10 0:0 1:0 
10 0:0 1:0 
10 0:0 1:0 
10 0:0 1:0 
10 0:0 1:0 
10 0:0 1:0 
10 0:0 1:0 
10 0:0 1:0 
10 0:0 1:0 
10 0:0 1:0 
10 0:0 1:0 
10 0:0 1:0 
10 0:0 1:0 
10 0:0 1:0 
10 0:0 1:0 
10 0:0 1:0 
10 0:0 1:0 
10 0:0 1:0 
10 0:0 1:0 
10 0:0 1:0 
10 0:0 1:0 
10 0:0 1:0 
10 0:0 1:0 
10 0:0 1:0 
10 0:0 1:0 
10 0:0 1:0 
10 0:0 1:0 
10 0:0 1:0 
10 0:0 1:0 
10 0:0 1:0 
10 0:0 1:0 
10 0:0 1:0 
10 0:0 1:0 
10 0:0 1:0 
10 0:0 1:0 
10 0:0 1:0 
10 0:0 1:0 
10 0:0 1:0 
10 0:0 1:0 
10 0:0 1:0 
10 0:0 1:0 
10 0:0 1:0 
10 0:0 1:0 
10 0:0 1:0 
10 0:0 1:0 
10 0:0 1:0 
10 0:0 1:0 
10 0:0 1:0 
10 0:0 1:0 
10 0:0 1:0 
10 0:0 1:0 
10 0:0 1:0 
10 0:0 1:0 
10 0:0 1:0 
10 0:0 1:0 
10 0:0 1:0 
10 0:0 1:0 
10 0:0 1:0 
10 0:0 1:0 
10 0:0 1:0 
10 0:0 1:0 
10 0:0 1:0 
10 0:0 1:0 
10 0:0 1:0 
10 0:0 1:0 
10 0:0 1:1 
10 0:0 1:0 
10 0:0 1:0 
10 0:0 1:0 
10 0:0 1:0 
10 0:0 1:0 
10 0:1 1:0 
10 0:1 1:0 
10 0:0 1:0 
10 0:0 1:0 
10 0:0 1:0 
10 0:0 1:0 
10 0:0 1:0 
10 0:0 1:0 
10 0:0 1:1 
10 0:1 1:0 
10 0:0 1:0 
10 0:0 1:0 
10 0:0 1:0 
10 0:1 1:0 
10 0:0 1:0 
10 0:1 1:0 
10 0:0 1:0 
10 0:0 1:0 
10 0:0 1:0 
10 0:0 1:0 
10 0:0 1:0 
10 0:0 1:0 
10 0:0 1:0 
10 0:0 1:0 
10 0:0 1:0 
10 0:1 1:0 
10 0:0 1:0 
10 0:0 1:0 
10 0:0 1:0 
10 0:0 1:0 
10 0:0 1:1 
10 0:1 1:0 
10 0:0 1:0 
10 0:0 1:0 
10 0:0 1:0 
10 0:0 1:0 
10 0:1 1:0 
10 0:1 1:0 
10 0:0 1:0 
10 0:1 1:0 
10 0:0 1:0 
10 0:0 1:0 
10 0:0 1:0 
10 0:0 1:0 
10 0:0 1:1 
8.0009765625 0:0 1:0 
10 0:1 1:0 
10 0:1 1:0 
10 0:1 1:0 
10 0:1 1:0 
10 0:1 1:0 
10 0:1 1:0 
10 0:1 1:0 
10 0:1 1:0 
-10 0:0 1:0 
-10 0:0 1:0 
-10 0:0 1:0 
-10 0:0 1:0 
-10 0:0 1:1 
-10 0:0 1:0 
-10 0:1 1:0 
-10 0:0 1:1 
-10 0:1 1:0 
-10 0:0 1:0 
-10 0:1 1:0 
-10 0:0 1:0 
-10 0:1 1:0 
-10 0:0 1:0 
-10 0:0 1:0 
-10 0:0 1:1 
-10 0:0 1:0 
-10 0:0 1:0 
-10 0:0 1:0 
-10 0:0 1:0 
-10 0:0 1:0 
-10 0:1 1:0 
-10 0:0 1:1 
-10 0:0 1:0 
-10 0:1 1:0 
-10 0:0 1:0 
-10 0:0 1:0 
-10 0:0 1:0 
-10 0:0 1:0 
-10 0:1 1:0 
-10 0:1 1:0 
-10 0:1 1:0 
-10 0:1 1:0 
-10 0:0 1:0 
-10 0:0 1:0 
-10 0:0 1:0 
-10 0:1 1:0 
-10 0:0 1:0 
-10 0:1 1:0 
-10 0:0 1:0 
-10 0:0 1:0 
-10 0:0 1:0 
-10 0:1 1:0 
-10 0:0 1:0 
-10 0:1 1:0 
-10 0:1 1:0 
-10 0:0 1:0 
-10 0:1 1:0 
-10 0:0 1:0 
-10 0:0 1:0 
-10 0:1 1:0 
-10 0:0 1:0 
-10 0:0 1:0 
-10 0:0 1:0 
-10 0:0 1:0 
-10 0:0 1:0 
-10 0:1 1:0 
-10 0:0 1:0 
-10 0:1 1:0 
-10 0:0 1:0 
-10 0:0 1:0 
-10 0:0 1:1 
-10 0:0 1:0 
-10 0:0 1:0 
-10 0:1 1:0 
-10 0:1 1:0 
-10 0:0 1:0 
-10 0:0 1:0 
-10 0:0 1:0 
-10 0:1 1:0 
-10 0:0 1:0 
-10 0:0 1:0 
-10 0:0 1:1 
-10 0:0 1:0 
-10 0:1 1:0 
-10 0:0 1:0 
-10 0:1 1:0 
-10 0:0 1:0 
-10 0:1 1:0 
-10 0:0 1:0 
-10 0:0 1:0 
-10 0:1 1:0 
-10 0:0 1:0 
-10 0:1 1:0 
-10 0:0 1:0 
-10 0:0 1:0 
-10 0:0 1:0 
-10 0:0 1:0 
-10 0:1 1:0 
-10 0:0 1:0 
-10 0:0 1:0 
-10 0:1 1:0 
-10 0:1 1:0 
-10 0:0 1:0 
-10 0:1 1:0 
-10 0:0 1:0 
-10 0:1 1:0 
-10 0:0 1:0 
-10 0:0 1:0 
-10 0:0 1:0 
-10 0:0 1:0 
-10 0:1 1:0 
-10 0:0 1:0 
-10 0:0 1:0 
-10 0:1 1:0 
-10 0:0 1:0 
-10 0:1 1:0 
-10 0:1 1:0 
-10 0:1 1:0 
-10 0:1 1:0 
-10 0:1 1:0 
-10 0:1 1:0 
-10 0:0 1:0 
-10 0:0 1:0 
-10 0:0 1:0 
-10 0:1 1:0 
-10 0:0 1:0 
-10 0:0 1:0 
-10 0:1 1:0 
-10 0:0 1:0 
-10 0:0 1:0 
-10 0:1 1:0 
-10 0:0 1:0 
-10 0:0 1:0 
-10 0:0 1:0 
-10 0:0 1:0 
-10 0:0 1:0 
-10 0:0 1:0 
-10 0:1 1:0 
-10 0:1 1:0 
-10 0:1 1:0 
-10 0:1 1:0 
-2 0:1 1:1 
-10 0:0 1:0 
-10 0:0 1:0 
-10 0:1 1:1 
-10 0:0 1:1 
-10 0:0 1:0 
-10 0:0 1:0 
-10 0:1 1:0 
-10 0:1 1:0 
-10 0:1 1:0 
-10 0:0 1:0 
-10 0:0 1:0 
-10 0:1 1:0 
-10 0:1 1:1 
-10 0:1 1:1 
-10 0:1 1:1 
-10 0:0 1:0 
-10 0:0 1:0 
-10 0:0 1:0 
-10 0:1 1:1 
-10 0:1 1:0 
-10 0:1 1:0 
-10 0:1 1:1 
-10 0:1 1:1 
-10 0:1 1:1 
-10 0:0 1:0 
-10 0:1 1:1 
-10 0:0 1:0 
-10 0:1 1:0 
-10 0:0 1:1 
-10 0:1 1:1 
-10 0:0 1:0 
-10 0:0 1:0 
-10 0:1 1:0 
-10 0:0 1:0 
-10 0:1 1:0 
-10 0:1 1:1 
-10 0:1 1:1 
-10 0:1 1:0 
-10 0:1 1:0 
-10 0:0 1:0 
-10 0:0 1:0 
-10 0:1 1:0 
-10 0:1 1:1 
-10 0:0 1:0 
-10 0:0 1:0 
-10 0:1 1:1 
-10 0:0 1:1 
-10 0:1 1:1 
-10 0:1 1:0 
-10 0:1 1:0 
-10 0:1 1:0 
-10 0:1 1:0 
-10 0:0 1:0 
-10 0:0 1:0 
-10 0:1 1:0 
-10 0:1 1:0 
-10 0:0 1:0 
-10 0:1 1:1 
-10 0:1 1:1 
-10 0:1 1:0 
-10 0:1 1:0 
-10 0:1 1:1 
-10 0:1 1:0 
-10 0:1 1:0 
-10 0:0 1:0 
-10 0:1 1:0 
-10 0:0 1:0 
-10 0:1 1:1 
-10 0:1 1:0 
-10 0:1 1:0 
-10 0:0 1:0 
-10 0:0 1:0 
-10 0:0 1:0 
-10 0:0 1:1 
-10 0:0 1:1 
-10 0:0 1:0 
-10 0:0 1:0 
-10 0:1 1:0 
-10 0:1 1:0 
-10 0:1 1:1 
-10 0:0 1:1 
-10 0:0 1:1 
-10 0:0 1:0 
-10 0:1 1:0 
-10 0:1 1:0 
-10 0:0 1:0 
-10 0:1 1:0 
-10 0:0 1:0 
-10 0:0 1:0 
-10 0:0 1:0 
-10 0:0 1:1 
-10 0:0 1:0 
-10 0:1 1:1 
-10 0:0 1:0 
-10 0:1 1:0 
-10 0:0 1:0 
-10 0:0 1:0 
-10 0:1 1:1 
-10 0:0 1:0 
-10 0:0 1:0 
-10 0:0 1:0 
-10 0:0 1:0 
-10 0:0 1:0 
-10 0:1 1:0 
-10 0:1 1:0 
-10 0:1 1:0 
-10 0:0 1:0 
-10 0:1 1:0 
-10 0:1 1:0 
-10 0:1 1:0 
-10 0:1 1:0 
-10 0:1 1:0 
-10 0:1 1:1 
-10 0:0 1:0 
-10 0:1 1:0 
-10 0:1 1:0 
-10 0:0 1:0 
-10 0:1 1:0 
-10 0:1 1:0 
-10 0:1 1:0 
-10 0:1 1:0 
-10 0:0 1:0 
-10 0:1 1:1 
-10 0:0 1:0 
-10 0:0 1:1 
-10 0:0 1:1 
-10 0:0 1:0 
-10 0:1 1:1 
-10 0:1 1:0 
-10 0:1 1:0 
-10 0:1 1:0 
-10 0:1 1:1 
-10 0:1 1:0 
-10 0:1 1:0 
-10 0:1 1:0 
-10 0:0 1:1 
-10 0:1 1:0 
-10 0:1 1:0 
-10 0:0 1:0 
-10 0:0 1:0 
-10 0:0 1:0 
-10 0:1 1:1 
-10 0:1 1:1 
-10 0:1 1:1 
-10 0:1 1:0 
-10 0:0 1:0 
-10 0:1 1:0 
-10 0:0 1:0 
-10 0:1 1:0 
-10 0:0 1:0 
-10 0:1 1:0 
-10 0:0 1:0 
-10 0:1 1:1 
-10 0:0 1:0 
-10 0:1 1:0 
-10 0:1 1:0 
-10 0:1 1:0 
-10 0:0 1:0 
-10 0:0 1:1 
-10 0:0 1:0 
-10 0:1 1:1 
-10 0:0 1:0 
-10 0:0 1:0 
-10 0:0 1:0 
-10 0:0 1:1 
-10 0:1 1:0 
-10 0:1 1:0 
-10 0:1 1:1 
-10 0:1 1:1 
-10 0:1 1:0 
-10 0:1 1:0 
-10 0:0 1:0 
-10 0:0 1:0 
-10 0:0 1:0 
-10 0:0 1:1 
-10 0:1 1:0 
-10 0:0 1:0 
-10 0:1 1:1 
-10 0:1 1:0 
-10 0:1 1:0 
-10 0:1 1:0 
-10 0:1 1:0 
-10 0:0 1:0 
-10 0:1 1:0 
-10 0:0 1:0 
-10 0:0 1:0 
-10 0:0 1:0 
-10 0:1 1:0 
-10 0:1 1:0 
-10 0:0 1:0 
-10 0:1 1:0 
-10 0:1 1:0 
-10 0:0 1:0 
-10 0:1 1:0 
-10 0:1 1:0 
-10 0:0 1:0 
-10 0:1 1:1 
-10 0:1 1:1 
-10 0:1 1:0 
-10 0:1 1:0 
-10 0:0 1:0 
-10 0:1 1:0 
-10 0:0 1:0 
-10 0:1 1:0 
-10 0:1 1:0 
-10 0:1 1:0 
-10 0:0 1:0 
-10 0:1 1:0 
-10 0:1 1:0 
-10 0:0 1:0 
-10 0:1 1:0 
-10 0:1 1:0 
-10 0:1 1:0 
-10 0:0 1:0 
-10 0:1 1:1 
-10 0:1 1:1 
-10 0:0 1:0 
-10 0:0 1:0 
-10 0:0 1:0 
-10 0:0 1:0 
-10 0:1 1:0 
-10 0:1 1:0 
-10 0:1 1:1 
-10 0:1 1:0 
-10 0:1 1:1 
-10 0:1 1:0 
-10 0:1 1:0 
-10 0:0 1:1 
-10 0:0 1:0 
-10 0:1 1:0 
-10 0:1 1:0 
-10 0:1 1:0 
-10 0:0 1:0 
-10 0:1 1:0 
-10 0:0 1:0 
-10 0:0 1:0 
-10 0:0 1:0 
-10 0:1 1:0 
-10 0:1 1:0 
-10 0:0 1:0 
-10 0:0 1:0 
-10 0:1 1:0 
-10 0:1 1:1 
-10 0:0 1:0 
-10 0:1 1:0 
-10 0:1 1:0 
-10 0:1 1:0 
-10 0:1 1:1 
-10 0:1 1:1 
-10 0:0 1:0 
-10 0:0 1:0 
-10 0:1 1:0 
-10 0:1 1:0 
-10 0:0 1:1 
-10 0:1 1:0 
-10 0:0 1:0 
-10 0:1 1:0 
-10 0:1 1:0 
-10 0:1 1:0 
-10 0:0 1:0 
-10 0:1 1:0 
-10 0:0 1:0 
-10 0:1 1:0 
-10 0:1 1:0 
-10 0:1 1:1 
-10 0:0 1:0 
-10 0:0 1:0 
-10 0:1 1:0 
-10 0:1 1:0 
-10 0:0 1:0 
-10 0:1 1:0 
-10 0:1 1:0 
-10 0:1 1:0 
-10 0:0 1:0 
-10 0:0 1:0 
-10 0:0 1:0 
-10 0:1 1:0 
-10 0:0 1:0 
-10 0:0 1:0 
-10 0:1 1:0 
-10 0:0 1:0 
-10 0:1 1:0 
-10 0:1 1:0 
-10 0:1 1:0 
-10 0:0 1:0 
-10 0:0 1:0 
-10 0:0 1:0 
-10 0:1 1:0 
-10 0:1 1:0 
-10 0:1 1:1 
-10 0:1 1:0 
-10 0:1 1:0 
-10 0:0 1:0 
-10 0:0 1:0 
-10 0:1 1:0 
-10 0:1 1:0 
-10 0:1 1:0 
-10 0:1 1:1 
-10 0:1 1:0 
-10 0:1 1:0 
-10 0:1 1:0 
-10 0:1 1:1 
-10 0:1 1:0 
-10 0:1 1:1 
-10 0:0 1:0 
-10 0:0 1:0 
-10 0:1 1:0 
-10 0:1 1:0 
-10 0:0 1:0 
-10 0:1 1:0 
-10 0:0 1:0 
-10 0:0 1:1 
-10 0:0 1:0 
-10 0:1 1:0 
-10 0:1 1:0 
-10 0:0 1:0 
-10 0:1 1:0 
-10 0:1 1:0 
-10 0:0 1:0 
-10 0:1 1:0 
-10 0:1 1:0 
-10 0:1 1:0 
-10 0:1 1:0 
-10 0:1 1:0 
-10 0:0 1:0 
-10 0:1 1:0 
-10 0:1 1:1 
-10 0:0 1:0 
-10 0:0 1:0 
-10 0:1 1:0 
-10 0:0 1:0 
-10 0:0 1:0 
-10 0:1 1:0 
-10 0:1 1:0 
-10 0:1 1:1 
-10 0:0 1:0 
-10 0:1 1:1 
-10 0:1 1:1 
-10 0:1 1:1 
-10 0:1 1:0 
-10 0:1 1:0 
-10 0:1 1:1 
-10 0:1 1:1 
-9.9990234375 0:1 1:1 
-10 0:1 1:0 
-10 0:1 1:0 
-10 0:1 1:0 
-10 0:0 1:0 
