svm_type c_svc
kernel_type linear
nr_class 2
total_sv 920
rho -1
label 0 1
nr_sv 461 459
SV
10 0:0 1:1 2:0 
10 0:0 1:1 2:0 
10 0:0 1:1 2:0 
10 0:1 1:1 2:0 
10 0:1 1:1 2:0 
10 0:0 1:1 2:0 
10 0:1 1:1 2:0 
10 0:0 1:1 2:0 
10 0:0 1:1 2:0 
10 0:0 1:1 2:0 
10 0:1 1:1 2:0 
10 0:0 1:1 2:0 
10 0:0 1:1 2:0 
10 0:0 1:1 2:0 
10 0:0 1:1 2:0 
10 0:0 1:1 2:0 
10 0:0 1:1 2:0 
10 0:0 1:1 2:0 
10 0:0 1:1 2:0 
10 0:0 1:1 2:0 
10 0:0 1:1 2:0 
10 0:1 1:1 2:0 
10 0:1 1:1 2:0 
10 0:1 1:1 2:0 
10 0:1 1:1 2:0 
10 0:1 1:1 2:0 
10 0:1 1:1 2:0 
10 0:1 1:1 2:0 
10 0:1 1:1 2:0 
10 0:1 1:1 2:0 
10 0:1 1:1 2:0 
10 0:1 1:1 2:0 
10 0:1 1:1 2:0 
10 0:1 1:1 2:0 
1.999999999999999 0:1 1:0 2:0 
10 0:1 1:0 2:0 
10 0:1 1:0 2:0 
10 0:1 1:0 2:0 
10 0:1 1:0 2:0 
10 0:1 1:0 2:0 
10 0:1 1:0 2:0 
10 0:1 1:0 2:0 
10 0:1 1:0 2:0 
10 0:1 1:0 2:0 
10 0:1 1:0 2:0 
10 0:1 1:0 2:0 
10 0:1 1:0 2:0 
10 0:1 1:0 2:0 
10 0:1 1:0 2:0 
10 0:1 1:0 2:0 
10 0:1 1:0 2:0 
10 0:1 1:0 2:0 
10 0:1 1:0 2:0 
10 0:1 1:0 2:0 
10 0:1 1:0 2:0 
10 0:1 1:0 2:0 
10 0:1 1:0 2:0 
10 0:1 1:0 2:0 
10 0:1 1:0 2:0 
10 0:1 1:0 2:0 
10 0:1 1:1 2:0 
10 0:1 1:0 2:0 
10 0:1 1:0 2:0 
10 0:1 1:0 2:0 
10 0:1 1:0 2:0 
10 0:1 1:0 2:0 
10 0:1 1:0 2:0 
10 0:1 1:1 2:0 
10 0:1 1:0 2:0 
10 0:1 1:0 2:0 
10 0:1 1:1 2:0 
10 0:1 1:1 2:0 
10 0:1 1:1 2:0 
10 0:1 1:0 2:0 
10 0:1 1:0 2:0 
10 0:1 1:0 2:0 
10 0:1 1:0 2:0 
10 0:1 1:0 2:0 
10 0:1 1:0 2:0 
10 0:1 1:0 2:0 
10 0:1 1:0 2:0 
10 0:1 1:0 2:0 
10 0:1 1:0 2:0 
10 0:1 1:0 2:0 
10 0:1 1:0 2:0 
10 0:1 1:0 2:0 
10 0:1 1:0 2:0 
10 0:1 1:0 2:0 
10 0:1 1:0 2:0 
10 0:1 1:0 2:0 
10 0:1 1:0 2:0 
10 0:1 1:0 2:0 
10 0:1 1:0 2:0 
10 0:1 1:0 2:0 
10 0:1 1:0 2:0 
10 0:1 1:0 2:0 
10 0:1 1:0 2:0 
10 0:1 1:0 2:0 
10 0:1 1:0 2:0 
10 0:1 1:0 2:0 
10 0:1 1:0 2:0 
10 0:1 1:0 2:0 
10 0:1 1:0 2:0 
10 0:1 1:0 2:0 
10 0:1 1:0 2:0 
10 0:1 1:0 2:0 
10 0:1 1:0 2:0 
10 0:1 1:0 2:0 
10 0:1 1:0 2:0 
10 0:1 1:0 2:0 
10 0:1 1:0 2:0 
10 0:1 1:0 2:0 
10 0:1 1:0 2:0 
10 0:1 1:0 2:0 
10 0:1 1:0 2:0 
10 0:1 1:0 2:0 
10 0:1 1:1 2:0 
10 0:1 1:1 2:0 
10 0:1 1:0 2:0 
10 0:1 1:0 2:0 
10 0:1 1:0 2:0 
10 0:1 1:0 2:0 
10 0:1 1:0 2:0 
10 0:1 1:1 2:0 
10 0:1 1:0 2:0 
10 0:1 1:0 2:0 
10 0:1 1:0 2:0 
10 0:1 1:0 2:0 
10 0:1 1:0 2:0 
10 0:1 1:0 2:0 
10 0:1 1:0 2:0 
10 0:1 1:0 2:0 
10 0:1 1:0 2:0 
10 0:1 1:0 2:0 
10 0:1 1:0 2:0 
10 0:1 1:0 2:0 
10 0:1 1:0 2:0 
10 0:1 1:0 2:0 
10 0:1 1:0 2:0 
10 0:1 1:0 2:0 
10 0:1 1:0 2:0 
10 0:1 1:0 2:0 
10 0:1 1:0 2:0 
10 0:1 1:0 2:0 
10 0:1 1:0 2:0 
10 0:1 1:0 2:0 
10 0:1 1:0 2:0 
10 0:1 1:0 2:0 
10 0:1 1:0 2:0 
10 0:1 1:0 2:0 
10 0:1 1:0 2:0 
10 0:1 1:1 2:0 
10 0:1 1:0 2:0 
10 0:1 1:0 2:0 
10 0:1 1:0 2:0 
10 0:1 1:0 2:0 
10 0:1 1:0 2:0 
10 0:1 1:0 2:0 
10 0:1 1:0 2:0 
10 0:1 1:0 2:0 
10 0:1 1:0 2:0 
10 0:1 1:0 2:0 
10 0:1 1:0 2:0 
10 0:1 1:0 2:0 
10 0:1 1:0 2:0 
10 0:1 1:0 2:0 
10 0:1 1:0 2:0 
10 0:1 1:0 2:0 
10 0:1 1:0 2:0 
10 0:1 1:0 2:0 
10 0:1 1:0 2:0 
10 0:1 1:0 2:0 
10 0:1 1:0 2:0 
10 0:1 1:0 2:0 
10 0:1 1:0 2:0 
10 0:1 1:0 2:0 
10 0:1 1:0 2:0 
10 0:1 1:0 2:0 
10 0:1 1:0 2:0 
10 0:1 1:0 2:0 
10 0:1 1:0 2:0 
10 0:1 1:0 2:0 
10 0:1 1:0 2:0 
10 0:1 1:0 2:0 
10 0:1 1:0 2:0 
10 0:1 1:0 2:0 
10 0:1 1:1 2:0 
10 0:1 1:0 2:0 
10 0:1 1:0 2:0 
10 0:1 1:0 2:0 
10 0:1 1:0 2:0 
10 0:1 1:0 2:0 
10 0:1 1:0 2:0 
10 0:1 1:0 2:0 
10 0:1 1:0 2:0 
10 0:1 1:0 2:0 
10 0:1 1:0 2:0 
10 0:1 1:0 2:0 
10 0:1 1:1 2:0 
10 0:1 1:0 2:0 
10 0:1 1:0 2:0 
2 0:1 1:1 2:1 
10 0:1 1:0 2:0 
10 0:1 1:0 2:0 
10 0:1 1:0 2:0 
10 0:1 1:0 2:0 
10 0:1 1:0 2:0 
10 0:1 1:1 2:0 
10 0:1 1:0 2:0 
10 0:1 1:0 2:0 
10 0:1 1:0 2:0 
10 0:1 1:0 2:0 
10 0:1 1:1 2:0 
10 0:1 1:0 2:0 
10 0:0 1:1 2:0 
10 0:0 1:1 2:0 
10 0:1 1:0 2:0 
10 0:1 1:0 2:0 
10 0:1 1:0 2:0 
10 0:1 1:0 2:0 
10 0:1 1:0 2:0 
10 0:1 1:0 2:0 
10 0:1 1:0 2:0 
10 0:1 1:0 2:0 
10 0:1 1:0 2:0 
10 0:0 1:1 2:0 
10 0:1 1:0 2:0 
10 0:1 1:0 2:0 
10 0:1 1:0 2:0 
10 0:1 1:0 2:0 
10 0:1 1:0 2:0 
10 0:1 1:0 2:0 
10 0:1 1:0 2:0 
10 0:1 1:0 2:0 
10 0:1 1:0 2:0 
10 0:1 1:0 2:0 
10 0:1 1:0 2:0 
10 0:1 1:0 2:0 
10 0:1 1:0 2:0 
10 0:1 1:0 2:0 
10 0:1 1:0 2:0 
10 0:1 1:0 2:0 
10 0:1 1:0 2:0 
10 0:0 1:1 2:0 
10 0:0 1:1 2:0 
10 0:0 1:1 2:0 
10 0:1 1:0 2:0 
10 0:1 1:0 2:0 
10 0:1 1:0 2:0 
10 0:1 1:0 2:0 
2 0:0 1:0 2:0 
10 0:0 1:0 2:0 
10 0:0 1:0 2:0 
10 0:0 1:0 2:0 
10 0:0 1:0 2:0 
10 0:0 1:0 2:0 
10 0:0 1:0 2:0 
10 0:0 1:0 2:0 
10 0:0 1:0 2:0 
10 0:0 1:0 2:0 
10 0:0 1:0 2:0 
10 0:0 1:0 2:0 
10 0:0 1:0 2:0 
10 0:0 1:0 2:0 
10 0:0 1:0 2:0 
10 0:0 1:0 2:0 
10 0:0 1:0 2:0 
10 0:0 1:0 2:0 
10 0:0 1:0 2:0 
10 0:0 1:0 2:0 
10 0:0 1:0 2:0 
10 0:0 1:0 2:0 
10 0:0 1:0 2:0 
10 0:0 1:0 2:0 
10 0:0 1:0 2:0 
10 0:0 1:0 2:0 
10 0:0 1:0 2:0 
10 0:0 1:0 2:0 
10 0:0 1:0 2:0 
10 0:0 1:0 2:0 
10 0:0 1:0 2:0 
10 0:0 1:0 2:0 
10 0:0 1:0 2:0 
10 0:0 1:0 2:0 
10 0:0 1:0 2:0 
10 0:0 1:0 2:0 
10 0:0 1:0 2:0 
10 0:0 1:0 2:0 
10 0:0 1:0 2:0 
10 0:0 1:0 2:0 
10 0:0 1:0 2:0 
10 0:0 1:0 2:0 
10 0:0 1:0 2:0 
10 0:0 1:0 2:0 
10 0:0 1:0 2:0 
10 0:0 1:0 2:0 
10 0:0 1:0 2:0 
10 0:0 1:0 2:0 
10 0:0 1:0 2:0 
10 0:0 1:0 2:0 
10 0:0 1:0 2:0 
10 0:0 1:0 2:0 
10 0:0 1:0 2:0 
10 0:0 1:0 2:0 
10 0:0 1:0 2:0 
10 0:0 1:0 2:0 
10 0:0 1:0 2:0 
10 0:0 1:0 2:0 
10 0:0 1:0 2:0 
10 0:0 1:0 2:0 
10 0:0 1:0 2:0 
10 0:0 1:0 2:0 
10 0:0 1:0 2:0 
10 0:0 1:0 2:0 
10 0:0 1:0 2:0 
10 0:0 1:0 2:0 
10 0:0 1:0 2:0 
10 0:0 1:0 2:0 
10 0:0 1:0 2:0 
10 0:0 1:0 2:0 
10 0:0 1:0 2:0 
10 0:0 1:0 2:0 
10 0:0 1:0 2:0 
10 0:0 1:0 2:0 
10 0:0 1:0 2:0 
10 0:0 1:0 2:0 
10 0:0 1:0 2:0 
10 0:0 1:0 2:0 
10 0:0 1:0 2:0 
10 0:0 1:0 2:0 
10 0:0 1:0 2:0 
10 0:0 1:0 2:0 
10 0:0 1:0 2:0 
10 0:0 1:0 2:0 
10 0:0 1:0 2:0 
10 0:0 1:0 2:0 
10 0:0 1:0 2:0 
10 0:0 1:0 2:0 
10 0:0 1:0 2:0 
10 0:0 1:0 2:0 
10 0:0 1:0 2:0 
10 0:0 1:0 2:0 
10 0:0 1:0 2:0 
10 0:0 1:0 2:0 
10 0:0 1:0 2:0 
10 0:0 1:0 2:0 
10 0:0 1:0 2:0 
10 0:0 1:0 2:0 
10 0:0 1:0 2:0 
10 0:0 1:0 2:0 
10 0:0 1:0 2:0 
10 0:0 1:0 2:0 
10 0:0 1:0 2:0 
10 0:0 1:0 2:0 
10 0:0 1:0 2:0 
10 0:0 1:0 2:0 
10 0:0 1:0 2:0 
10 0:0 1:0 2:0 
10 0:0 1:0 2:0 
10 0:0 1:0 2:0 
10 0:0 1:0 2:0 
10 0:0 1:0 2:0 
10 0:0 1:0 2:0 
10 0:0 1:0 2:0 
10 0:0 1:0 2:0 
10 0:0 1:0 2:0 
10 0:0 1:0 2:0 
10 0:0 1:0 2:0 
10 0:0 1:0 2:0 
10 0:0 1:0 2:0 
10 0:0 1:0 2:0 
10 0:0 1:0 2:0 
10 0:0 1:0 2:0 
10 0:0 1:0 2:0 
10 0:0 1:0 2:0 
10 0:0 1:0 2:0 
10 0:0 1:0 2:0 
10 0:0 1:0 2:0 
10 0:0 1:0 2:0 
10 0:0 1:0 2:0 
10 0:0 1:0 2:0 
10 0:0 1:0 2:0 
10 0:0 1:0 2:0 
10 0:0 1:0 2:0 
10 0:0 1:0 2:0 
10 0:0 1:0 2:0 
10 0:0 1:0 2:0 
10 0:0 1:0 2:0 
10 0:0 1:0 2:0 
10 0:0 1:0 2:0 
10 0:0 1:0 2:0 
10 0:0 1:0 2:0 
10 0:0 1:0 2:0 
10 0:0 1:0 2:0 
10 0:0 1:0 2:0 
10 0:0 1:0 2:0 
10 0:0 1:0 2:0 
10 0:0 1:0 2:0 
10 0:0 1:0 2:0 
10 0:0 1:0 2:0 
10 0:0 1:0 2:0 
10 0:0 1:0 2:0 
10 0:0 1:0 2:0 
10 0:0 1:0 2:0 
10 0:0 1:0 2:0 
10 0:0 1:0 2:0 
10 0:0 1:0 2:0 
10 0:0 1:0 2:0 
10 0:0 1:0 2:0 
10 0:0 1:0 2:0 
10 0:0 1:0 2:0 
10 0:0 1:0 2:0 
10 0:0 1:0 2:0 
10 0:0 1:0 2:0 
10 0:0 1:0 2:0 
10 0:0 1:0 2:0 
10 0:0 1:0 2:0 
10 0:0 1:0 2:0 
10 0:0 1:0 2:0 
10 0:0 1:0 2:0 
10 0:0 1:0 2:0 
10 0:0 1:1 2:0 
10 0:0 1:0 2:0 
10 0:0 1:0 2:0 
10 0:0 1:0 2:0 
10 0:0 1:0 2:0 
10 0:1 1:0 2:0 
10 0:1 1:0 2:0 
10 0:0 1:0 2:0 
10 0:0 1:0 2:0 
10 0:0 1:0 2:0 
10 0:0 1:0 2:0 
10 0:0 1:1 2:0 
10 0:1 1:0 2:0 
10 0:0 1:0 2:0 
10 0:0 1:0 2:0 
10 0:0 1:0 2:0 
10 0:0 1:0 2:0 
10 0:0 1:0 2:0 
10 0:0 1:0 2:0 
10 0:0 1:0 2:0 
10 0:0 1:0 2:0 
10 0:0 1:0 2:0 
10 0:0 1:0 2:0 
10 0:0 1:0 2:0 
10 0:1 1:0 2:0 
10 0:0 1:0 2:0 
10 0:0 1:0 2:0 
10 0:0 1:0 2:0 
10 0:0 1:1 2:0 
10 0:1 1:0 2:0 
10 0:0 1:0 2:0 
10 0:0 1:0 2:0 
10 0:1 1:0 2:0 
10 0:0 1:1 2:0 
10 0:0 1:0 2:0 
10 0:0 1:0 2:0 
8.000000000000004 0:0 1:0 2:0 
10 0:1 1:0 2:0 
10 0:1 1:0 2:0 
10 0:1 1:0 2:0 
-10 0:0 1:0 2:0 
-10 0:0 1:0 2:0 
-10 0:0 1:0 2:0 
-10 0:0 1:0 2:0 
-10 0:0 1:1 2:0 
-10 0:0 1:0 2:0 
-10 0:1 1:0 2:0 
-10 0:0 1:1 2:0 
-10 0:1 1:0 2:0 
-10 0:0 1:0 2:0 
-10 0:1 1:0 2:0 
-10 0:0 1:0 2:0 
-10 0:1 1:0 2:0 
-10 0:0 1:0 2:0 
-10 0:0 1:0 2:0 
-10 0:0 1:1 2:0 
-10 0:0 1:0 2:0 
-10 0:0 1:0 2:0 
-10 0:0 1:0 2:0 
-10 0:0 1:0 2:0 
-10 0:0 1:0 2:0 
-10 0:1 1:0 2:0 
-10 0:0 1:1 2:0 
-10 0:0 1:0 2:0 
-10 0:1 1:0 2:0 
-10 0:0 1:0 2:0 
-10 0:0 1:0 2:0 
-10 0:0 1:0 2:0 
-10 0:0 1:0 2:0 
-10 0:1 1:0 2:0 
-10 0:1 1:0 2:0 
-10 0:1 1:0 2:0 
-10 0:1 1:0 2:0 
-10 0:0 1:0 2:0 
-10 0:0 1:0 2:0 
-10 0:0 1:0 2:0 
-10 0:1 1:0 2:0 
-10 0:0 1:0 2:0 
-10 0:1 1:0 2:0 
-10 0:0 1:0 2:0 
-10 0:0 1:0 2:0 
-10 0:0 1:0 2:0 
-10 0:1 1:0 2:0 
-10 0:0 1:0 2:0 
-10 0:1 1:0 2:0 
-10 0:1 1:0 2:0 
-10 0:0 1:0 2:0 
-10 0:1 1:0 2:0 
-10 0:0 1:0 2:0 
-10 0:0 1:0 2:0 
-10 0:1 1:0 2:0 
-10 0:0 1:0 2:0 
-10 0:0 1:0 2:0 
-10 0:0 1:0 2:0 
-10 0:0 1:0 2:0 
-10 0:0 1:0 2:0 
-10 0:1 1:0 2:0 
-10 0:0 1:0 2:0 
-10 0:1 1:0 2:0 
-10 0:0 1:0 2:0 
-10 0:0 1:0 2:0 
-10 0:0 1:1 2:0 
-10 0:0 1:0 2:0 
-10 0:0 1:0 2:0 
-10 0:1 1:0 2:0 
-10 0:1 1:0 2:0 
-10 0:0 1:0 2:0 
-10 0:0 1:0 2:0 
-10 0:0 1:0 2:0 
-10 0:1 1:0 2:0 
-10 0:0 1:0 2:0 
-10 0:0 1:0 2:0 
-10 0:0 1:1 2:0 
-10 0:0 1:0 2:0 
-10 0:1 1:0 2:0 
-10 0:0 1:0 2:0 
-10 0:1 1:0 2:0 
-10 0:0 1:0 2:0 
-10 0:1 1:0 2:0 
-10 0:0 1:0 2:0 
-10 0:0 1:0 2:0 
-10 0:1 1:0 2:0 
-10 0:0 1:0 2:0 
-10 0:1 1:0 2:0 
-10 0:0 1:0 2:0 
-10 0:0 1:0 2:0 
-10 0:0 1:0 2:0 
-10 0:0 1:0 2:0 
-10 0:1 1:0 2:0 
-10 0:0 1:0 2:0 
-10 0:0 1:0 2:0 
-10 0:1 1:0 2:0 
-10 0:1 1:0 2:0 
-10 0:0 1:0 2:0 
-10 0:1 1:0 2:0 
-10 0:0 1:0 2:0 
-10 0:1 1:0 2:0 
-10 0:0 1:0 2:0 
-10 0:0 1:0 2:0 
-10 0:0 1:0 2:0 
-10 0:0 1:0 2:0 
-10 0:1 1:0 2:0 
-10 0:0 1:0 2:0 
-10 0:0 1:0 2:0 
-10 0:1 1:0 2:0 
-10 0:0 1:0 2:0 
-10 0:1 1:0 2:0 
-10 0:1 1:0 2:0 
-10 0:1 1:0 2:0 
-10 0:1 1:0 2:0 
-10 0:1 1:0 2:0 
-10 0:1 1:0 2:0 
-10 0:0 1:0 2:0 
-10 0:0 1:0 2:0 
-10 0:0 1:0 2:0 
-10 0:1 1:0 2:0 
-10 0:0 1:0 2:0 
-10 0:0 1:0 2:0 
-10 0:1 1:0 2:0 
-10 0:0 1:0 2:0 
-10 0:0 1:0 2:0 
-10 0:1 1:0 2:0 
-10 0:0 1:0 2:0 
-10 0:0 1:0 2:0 
-10 0:0 1:0 2:0 
-10 0:0 1:0 2:0 
-10 0:0 1:0 2:0 
-10 0:0 1:0 2:0 
-10 0:1 1:0 2:0 
-10 0:1 1:0 2:0 
-10 0:1 1:0 2:0 
-10 0:1 1:0 2:0 
-10 0:0 1:0 2:0 
-10 0:0 1:0 2:0 
-10 0:0 1:1 2:0 
-10 0:0 1:0 2:0 
-10 0:0 1:0 2:0 
-10 0:1 1:0 2:0 
-10 0:1 1:0 2:0 
-10 0:1 1:0 2:0 
-10 0:0 1:0 2:0 
-10 0:0 1:0 2:0 
-10 0:1 1:0 2:0 
-10 0:0 1:0 2:0 
-10 0:0 1:0 2:0 
-10 0:0 1:0 2:0 
-10 0:1 1:0 2:0 
-10 0:1 1:0 2:0 
-10 0:0 1:0 2:0 
-10 0:0 1:0 2:0 
-10 0:1 1:0 2:0 
-10 0:0 1:1 2:0 
-10 0:0 1:0 2:0 
-10 0:0 1:0 2:0 
-10 0:1 1:0 2:0 
-10 0:0 1:0 2:0 
-10 0:1 1:0 2:0 
-10 0:1 1:0 2:0 
-10 0:1 1:0 2:0 
-10 0:0 1:0 2:0 
-10 0:0 1:0 2:0 
-10 0:1 1:0 2:0 
-10 0:0 1:0 2:0 
-10 0:0 1:0 2:0 
-10 0:0 1:1 2:0 
-10 0:1 1:0 2:0 
-10 0:1 1:0 2:0 
-10 0:1 1:0 2:0 
-10 0:1 1:0 2:0 
-10 0:0 1:0 2:0 
-10 0:0 1:0 2:0 
-10 0:1 1:0 2:0 
-10 0:1 1:0 2:0 
-10 0:0 1:0 2:0 
-10 0:1 1:0 2:0 
-10 0:1 1:0 2:0 
-10 0:1 1:0 2:0 
-10 0:1 1:0 2:0 
-10 0:0 1:0 2:0 
-10 0:1 1:0 2:0 
-10 0:0 1:0 2:0 
-10 0:1 1:0 2:0 
-10 0:1 1:0 2:0 
-10 0:0 1:0 2:0 
-10 0:0 1:0 2:0 
-10 0:0 1:0 2:0 
-10 0:0 1:1 2:0 
-10 0:0 1:1 2:0 
-10 0:0 1:0 2:0 
-10 0:0 1:0 2:0 
-10 0:1 1:0 2:0 
-10 0:1 1:0 2:0 
-10 0:0 1:1 2:0 
-10 0:0 1:1 2:0 
-10 0:0 1:0 2:0 
-10 0:1 1:0 2:0 
-10 0:1 1:0 2:0 
-10 0:0 1:0 2:0 
-10 0:1 1:0 2:0 
-10 0:0 1:0 2:0 
-10 0:0 1:0 2:0 
-10 0:0 1:0 2:0 
-10 0:0 1:1 2:0 
-10 0:0 1:0 2:0 
-10 0:0 1:0 2:0 
-10 0:1 1:0 2:0 
-10 0:0 1:0 2:0 
-10 0:0 1:0 2:0 
-4 0:1 1:1 2:0 
-10 0:0 1:0 2:0 
-10 0:0 1:0 2:0 
-10 0:0 1:0 2:0 
-10 0:0 1:0 2:0 
-10 0:0 1:0 2:0 
-10 0:1 1:0 2:0 
-10 0:1 1:0 2:0 
-10 0:1 1:0 2:0 
-10 0:0 1:0 2:0 
-10 0:1 1:0 2:0 
-10 0:1 1:0 2:0 
-10 0:1 1:0 2:0 
-10 0:1 1:0 2:0 
-10 0:1 1:0 2:0 
-10 0:1 1:1 2:0 
-10 0:0 1:0 2:0 
-10 0:1 1:0 2:0 
-10 0:1 1:0 2:0 
-10 0:0 1:0 2:0 
-10 0:1 1:0 2:0 
-10 0:1 1:0 2:0 
-10 0:1 1:0 2:0 
-10 0:1 1:0 2:0 
-10 0:0 1:0 2:0 
-10 0:1 1:1 2:0 
-10 0:0 1:0 2:0 
-10 0:0 1:1 2:0 
-10 0:0 1:1 2:0 
-10 0:0 1:0 2:0 
-10 0:1 1:1 2:0 
-10 0:1 1:0 2:0 
-10 0:1 1:0 2:0 
-10 0:1 1:0 2:0 
-10 0:1 1:1 2:0 
-10 0:1 1:0 2:0 
-10 0:1 1:0 2:0 
-10 0:1 1:0 2:0 
-10 0:0 1:1 2:0 
-10 0:1 1:0 2:0 
-10 0:1 1:0 2:0 
-10 0:0 1:0 2:0 
-10 0:0 1:0 2:0 
-10 0:0 1:0 2:0 
-10 0:1 1:1 2:0 
-10 0:1 1:1 2:0 
-10 0:1 1:1 2:0 
-10 0:1 1:0 2:0 
-10 0:0 1:0 2:0 
-10 0:1 1:0 2:0 
-10 0:0 1:0 2:0 
-10 0:1 1:0 2:0 
-10 0:0 1:0 2:0 
-10 0:1 1:0 2:0 
-10 0:0 1:0 2:0 
-10 0:1 1:1 2:0 
-10 0:0 1:0 2:0 
-10 0:1 1:0 2:0 
-10 0:1 1:0 2:0 
-10 0:1 1:0 2:0 
-10 0:0 1:0 2:0 
-10 0:0 1:1 2:0 
-10 0:0 1:0 2:0 
-10 0:1 1:1 2:0 
-10 0:0 1:0 2:0 
-10 0:0 1:0 2:0 
-10 0:0 1:0 2:0 
-10 0:0 1:1 2:0 
-10 0:1 1:0 2:0 
-10 0:1 1:0 2:0 
-10 0:1 1:1 2:0 
-10 0:1 1:1 2:0 
-10 0:1 1:0 2:0 
-10 0:1 1:0 2:0 
-10 0:0 1:0 2:0 
-10 0:0 1:0 2:0 
-10 0:0 1:0 2:0 
-10 0:0 1:1 2:0 
-10 0:1 1:0 2:0 
-10 0:0 1:0 2:0 
-10 0:1 1:1 2:0 
-10 0:1 1:0 2:0 
-10 0:1 1:0 2:0 
-10 0:1 1:0 2:0 
-10 0:1 1:0 2:0 
-10 0:0 1:0 2:0 
-10 0:1 1:0 2:0 
-10 0:0 1:0 2:0 
-10 0:0 1:0 2:0 
-10 0:0 1:0 2:0 
-10 0:1 1:0 2:0 
-10 0:1 1:0 2:0 
-10 0:0 1:0 2:0 
-10 0:1 1:0 2:0 
-10 0:1 1:0 2:0 
-10 0:0 1:0 2:0 
-10 0:1 1:0 2:0 
-10 0:1 1:0 2:0 
-10 0:0 1:0 2:0 
-10 0:1 1:1 2:0 
-10 0:1 1:1 2:0 
-10 0:1 1:0 2:0 
-10 0:1 1:0 2:0 
-10 0:0 1:0 2:0 
-10 0:1 1:0 2:0 
-10 0:0 1:0 2:0 
-10 0:1 1:0 2:0 
-10 0:1 1:0 2:0 
-10 0:1 1:0 2:0 
-10 0:0 1:0 2:0 
-10 0:1 1:0 2:0 
-10 0:1 1:0 2:0 
-10 0:0 1:0 2:0 
-10 0:1 1:0 2:0 
-10 0:1 1:0 2:0 
-10 0:1 1:0 2:0 
-10 0:0 1:0 2:0 
-10 0:1 1:1 2:0 
-10 0:1 1:1 2:0 
-10 0:0 1:0 2:0 
-10 0:0 1:0 2:0 
-10 0:0 1:0 2:0 
-10 0:0 1:0 2:0 
-10 0:1 1:0 2:0 
-10 0:1 1:0 2:0 
-10 0:1 1:1 2:0 
-10 0:1 1:0 2:0 
-10 0:1 1:1 2:0 
-10 0:1 1:0 2:0 
-10 0:1 1:0 2:0 
-10 0:0 1:1 2:0 
-10 0:0 1:0 2:0 
-10 0:1 1:0 2:0 
-10 0:1 1:0 2:0 
-10 0:1 1:0 2:0 
-10 0:0 1:0 2:0 
-10 0:1 1:0 2:0 
-10 0:0 1:0 2:0 
-10 0:0 1:0 2:0 
-10 0:0 1:0 2:0 
-10 0:1 1:0 2:0 
-10 0:1 1:0 2:0 
-10 0:0 1:0 2:0 
-10 0:0 1:0 2:0 
-10 0:1 1:0 2:0 
-10 0:1 1:1 2:0 
-10 0:0 1:0 2:0 
-10 0:1 1:0 2:0 
-10 0:1 1:0 2:0 
-10 0:1 1:0 2:0 
-10 0:1 1:1 2:0 
-10 0:1 1:1 2:0 
-10 0:0 1:0 2:0 
-10 0:0 1:0 2:0 
-10 0:1 1:0 2:0 
-10 0:1 1:0 2:0 
-10 0:0 1:1 2:0 
-10 0:1 1:0 2:0 
-10 0:0 1:0 2:0 
-10 0:1 1:0 2:0 
-10 0:1 1:0 2:0 
-10 0:1 1:0 2:0 
-10 0:0 1:0 2:0 
-10 0:1 1:0 2:0 
-10 0:0 1:0 2:0 
-10 0:1 1:0 2:0 
-10 0:1 1:0 2:0 
-10 0:1 1:1 2:0 
-10 0:0 1:0 2:0 
-10 0:0 1:0 2:0 
-10 0:1 1:0 2:0 
-10 0:1 1:0 2:0 
-10 0:0 1:0 2:0 
-10 0:1 1:0 2:0 
-10 0:1 1:0 2:0 
-10 0:1 1:0 2:0 
-10 0:0 1:0 2:0 
-10 0:0 1:0 2:0 
-10 0:0 1:0 2:0 
-10 0:1 1:0 2:0 
-10 0:0 1:0 2:0 
-10 0:0 1:0 2:0 
-10 0:1 1:0 2:0 
-10 0:0 1:0 2:0 
-10 0:1 1:0 2:0 
-10 0:1 1:0 2:0 
-10 0:1 1:0 2:0 
-10 0:0 1:0 2:0 
-10 0:0 1:0 2:0 
-10 0:0 1:0 2:0 
-10 0:1 1:0 2:0 
-10 0:1 1:0 2:0 
-10 0:1 1:1 2:0 
-10 0:1 1:0 2:0 
-10 0:1 1:0 2:0 
-10 0:0 1:0 2:0 
-10 0:0 1:0 2:0 
-10 0:1 1:0 2:0 
-10 0:1 1:0 2:0 
-10 0:1 1:0 2:0 
-10 0:1 1:1 2:0 
-10 0:1 1:0 2:0 
-10 0:1 1:0 2:0 
-10 0:1 1:0 2:0 
-10 0:1 1:1 2:0 
-10 0:1 1:0 2:0 
-10 0:1 1:1 2:0 
-10 0:0 1:0 2:0 
-10 0:0 1:0 2:0 
-10 0:1 1:0 2:0 
-10 0:1 1:0 2:0 
-10 0:0 1:0 2:0 
-10 0:1 1:0 2:0 
-10 0:0 1:0 2:0 
-10 0:0 1:1 2:0 
-10 0:0 1:0 2:0 
-10 0:1 1:0 2:0 
-10 0:1 1:0 2:0 
-10 0:0 1:0 2:0 
-10 0:1 1:0 2:0 
-10 0:1 1:0 2:0 
-10 0:0 1:0 2:0 
-10 0:1 1:0 2:0 
-10 0:1 1:0 2:0 
-10 0:1 1:0 2:0 
-10 0:1 1:0 2:0 
-10 0:1 1:0 2:0 
-10 0:0 1:0 2:0 
-10 0:1 1:0 2:0 
-10 0:1 1:1 2:0 
-10 0:0 1:0 2:0 
-10 0:0 1:0 2:0 
-10 0:1 1:0 2:0 
-10 0:0 1:0 2:0 
-10 0:0 1:0 2:0 
-10 0:1 1:0 2:0 
-10 0:1 1:0 2:0 
-10 0:1 1:1 2:0 
-10 0:0 1:0 2:0 
-10 0:1 1:1 2:0 
-10 0:1 1:1 2:0 
-10 0:1 1:1 2:0 
-10 0:1 1:0 2:0 
-10 0:1 1:0 2:0 
-10 0:1 1:1 2:0 
-10 0:1 1:1 2:0 
-10 0:1 1:1 2:0 
-10 0:1 1:0 2:0 
-10 0:1 1:0 2:0 
-10 0:1 1:0 2:0 
-10 0:0 1:0 2:0 
